500
-9.445962288541132 -0.4498399808758573 0.009313713067939988 2.8476074685318045 
-9.475962288541131 -0.38983998087585725 -0.11068628693206001 2.937607468531804 
-9.355962288541134 -0.38983998087585725 -0.05068628693206001 2.8776074685318043 
-9.355962288541134 -0.4198399808758573 -0.11068628693206001 2.8776074685318043 
-9.355962288541134 -0.4198399808758573 -0.11068628693206001 2.8776074685318043 
-9.415962288541133 -0.4198399808758573 0.009313713067939988 2.907607468531804 
-9.415962288541133 -0.4198399808758573 -0.11068628693206001 3.0276074685318033 
-9.475962288541131 -0.4498399808758573 -0.08068628693206001 2.907607468531804 
-9.355962288541134 -0.4198399808758573 -0.05068628693206001 2.937607468531804 
-9.385962288541133 -0.38983998087585725 -0.11068628693206001 2.8776074685318043 
-9.415962288541133 -0.4498399808758573 -0.08068628693206001 2.9976074685318035 
-9.385962288541133 -0.4198399808758573 -0.08068628693206001 3.0276074685318033 
-9.475962288541131 -0.4198399808758573 -0.05068628693206001 2.8776074685318043 
-9.415962288541133 -0.4198399808758573 -0.11068628693206001 2.937607468531804 
-9.415962288541133 -0.3598399808758572 -0.17068628693206 2.907607468531804 
-9.355962288541134 -0.47983998087585733 -0.08068628693206001 2.907607468531804 
-9.385962288541133 -0.4498399808758573 -0.02068628693206001 2.8776074685318043 
-9.415962288541133 -0.4198399808758573 -0.08068628693206001 2.787607468531805 
-9.385962288541133 -0.4198399808758573 -0.11068628693206001 2.907607468531804 
-9.385962288541133 -0.38983998087585725 -0.17068628693206 2.757607468531805 
-9.385962288541133 -0.4498399808758573 -0.17068628693206 3.057607468531803 
-9.475962288541131 -0.38983998087585725 -0.11068628693206001 2.8476074685318045 
-9.445962288541132 -0.38983998087585725 -0.11068628693206001 2.907607468531804 
-9.445962288541132 -0.47983998087585733 0.03931371306793999 2.8476074685318045 
-9.475962288541131 -0.4498399808758573 -0.05068628693206001 2.8176074685318047 
-9.415962288541133 -0.4198399808758573 -0.08068628693206001 2.937607468531804 
-9.445962288541132 -0.4198399808758573 -0.08068628693206001 2.8176074685318047 
-9.415962288541133 -0.4498399808758573 0.03931371306793999 3.057607468531803 
-9.445962288541132 -0.4198399808758573 -0.08068628693206001 2.8776074685318043 
-9.355962288541134 -0.4498399808758573 -0.05068628693206001 2.9976074685318035 
-9.325962288541135 -0.38983998087585725 -0.08068628693206001 2.907607468531804 
-9.355962288541134 -0.4498399808758573 -0.17068628693206 2.937607468531804 
-9.445962288541132 -0.4498399808758573 -0.11068628693206001 2.757607468531805 
-9.325962288541135 -0.4198399808758573 -0.08068628693206001 2.907607468531804 
-9.385962288541133 -0.4198399808758573 -0.14068628693206 2.937607468531804 
-9.355962288541134 -0.47983998087585733 -0.14068628693206 2.8776074685318043 
-9.475962288541131 -0.4498399808758573 -0.11068628693206001 2.757607468531805 
-9.355962288541134 -0.4198399808758573 -0.08068628693206001 2.8776074685318043 
-9.445962288541132 -0.4498399808758573 -0.08068628693206001 2.787607468531805 
-9.445962288541132 -0.38983998087585725 -0.11068628693206001 2.757607468531805 
-9.475962288541131 -0.4498399808758573 -0.14068628693206 2.8776074685318043 
-9.415962288541133 -0.4198399808758573 -0.17068628693206 2.8176074685318047 
-9.475962288541131 -0.38983998087585725 0.009313713067939988 2.8476074685318045 
-9.415962288541133 -0.38983998087585725 -0.11068628693206001 2.8776074685318043 
-9.475962288541131 -0.38983998087585725 0.009313713067939988 2.8476074685318045 
-9.385962288541133 -0.38983998087585725 -0.05068628693206001 2.907607468531804 
-9.355962288541134 -0.38983998087585725 -0.08068628693206001 2.907607468531804 
-9.415962288541133 -0.4198399808758573 -0.17068628693206 2.907607468531804 
-9.355962288541134 -0.38983998087585725 -0.05068628693206001 3.0276074685318033 
-9.445962288541132 -0.4498399808758573 -0.02068628693206001 2.907607468531804 
-9.445962288541132 -0.4198399808758573 -0.20068628693206 2.757607468531805 
-9.445962288541132 -0.4498399808758573 0.009313713067939988 2.937607468531804 
-9.385962288541133 -0.4498399808758573 -0.08068628693206001 2.8776074685318043 
-9.355962288541134 -0.4198399808758573 -0.14068628693206 2.8176074685318047 
-9.445962288541132 -0.4198399808758573 -0.08068628693206001 2.937607468531804 
-9.475962288541131 -0.4498399808758573 -0.08068628693206001 2.907607468531804 
-9.355962288541134 -0.4198399808758573 -0.08068628693206001 3.0276074685318033 
-9.355962288541134 -0.4198399808758573 0.009313713067939988 2.757607468531805 
-9.445962288541132 -0.4198399808758573 -0.05068628693206001 2.8776074685318043 
-9.415962288541133 -0.4198399808758573 -0.08068628693206001 3.0276074685318033 
-9.355962288541134 -0.4498399808758573 -0.14068628693206 2.8776074685318043 
-9.445962288541132 -0.38983998087585725 -0.14068628693206 2.907607468531804 
-9.445962288541132 -0.4498399808758573 -0.11068628693206001 2.907607468531804 
-9.445962288541132 -0.4498399808758573 -0.02068628693206001 2.9976074685318035 
-9.355962288541134 -0.3598399808758572 -0.02068628693206001 2.907607468531804 
-9.445962288541132 -0.4498399808758573 -0.08068628693206001 2.787607468531805 
-9.415962288541133 -0.47983998087585733 -0.08068628693206001 2.9976074685318035 
-9.50596228854113 -0.38983998087585725 -0.08068628693206001 2.8776074685318043 
-9.385962288541133 -0.4498399808758573 -0.11068628693206001 2.907607468531804 
-9.445962288541132 -0.38983998087585725 -0.11068628693206001 2.757607468531805 
-9.355962288541134 -0.38983998087585725 -0.11068628693206001 2.8476074685318045 
-9.355962288541134 -0.38983998087585725 -0.08068628693206001 2.8776074685318043 
-9.355962288541134 -0.4498399808758573 -0.17068628693206 2.8476074685318045 
-9.355962288541134 -0.4198399808758573 -0.08068628693206001 3.0276074685318033 
-9.445962288541132 -0.4498399808758573 -0.08068628693206001 2.7276074685318052 
-9.385962288541133 -0.4498399808758573 0.009313713067939988 3.057607468531803 
-9.385962288541133 -0.3598399808758572 0.009313713067939988 2.937607468531804 
-9.355962288541134 -0.4498399808758573 -0.11068628693206001 2.8476074685318045 
-9.445962288541132 -0.4198399808758573 -0.05068628693206001 2.8776074685318043 
-9.355962288541134 -0.4198399808758573 -0.08068628693206001 2.907607468531804 
-9.445962288541132 -0.4198399808758573 -0.02068628693206001 2.787607468531805 
-9.385962288541133 -0.4198399808758573 -0.11068628693206001 2.937607468531804 
-9.325962288541135 -0.4498399808758573 -0.17068628693206 2.8476074685318045 
-9.415962288541133 -0.4498399808758573 -0.17068628693206 2.787607468531805 
-9.355962288541134 -0.4498399808758573 0.009313713067939988 2.907607468531804 
-9.445962288541132 -0.4198399808758573 -0.17068628693206 2.907607468531804 
-9.415962288541133 -0.38983998087585725 -0.14068628693206 2.9976074685318035 
-9.355962288541134 -0.4498399808758573 -0.08068628693206001 2.8776074685318043 
-9.475962288541131 -0.4198399808758573 -0.11068628693206001 2.8776074685318043 
-9.415962288541133 -0.38983998087585725 -0.17068628693206 2.907607468531804 
-9.445962288541132 -0.4498399808758573 -0.17068628693206 2.8476074685318045 
-9.445962288541132 -0.4498399808758573 0.009313713067939988 2.8476074685318045 
-9.415962288541133 -0.4498399808758573 -0.14068628693206 2.907607468531804 
-9.325962288541135 -0.4198399808758573 -0.11068628693206001 2.8476074685318045 
-9.445962288541132 -0.38983998087585725 -0.11068628693206001 2.907607468531804 
-9.355962288541134 -0.4198399808758573 -0.11068628693206001 2.8776074685318043 
-9.385962288541133 -0.4198399808758573 -0.08068628693206001 2.757607468531805 
-9.355962288541134 -0.4198399808758573 -0.11068628693206001 2.8776074685318043 
-9.385962288541133 -0.4498399808758573 -0.08068628693206001 2.907607468531804 
-9.415962288541133 -0.38983998087585725 -0.05068628693206001 3.0276074685318033 
-9.445962288541132 -0.47983998087585733 0.009313713067939988 2.8476074685318045 
-9.325962288541135 -0.4198399808758573 -0.20068628693206 3.1176074685318027 
-9.415962288541133 -0.4198399808758573 -0.20068628693206 2.787607468531805 
-9.385962288541133 -0.38983998087585725 -0.11068628693206001 2.787607468531805 
-9.445962288541132 -0.47983998087585733 -0.17068628693206 2.787607468531805 
-9.445962288541132 -0.4198399808758573 -0.17068628693206 3.057607468531803 
-9.445962288541132 -0.47983998087585733 -0.14068628693206 2.907607468531804 
-9.445962288541132 -0.47983998087585733 -0.17068628693206 2.8476074685318045 
-9.445962288541132 -0.4198399808758573 -0.20068628693206 2.757607468531805 
-9.385962288541133 -0.4198399808758573 -0.14068628693206 2.787607468531805 
-9.445962288541132 -0.4498399808758573 -0.17068628693206 2.787607468531805 
-9.445962288541132 -0.4498399808758573 -0.08068628693206001 3.0276074685318033 
-9.325962288541135 -0.4198399808758573 -0.08068628693206001 3.057607468531803 
-9.355962288541134 -0.4198399808758573 -0.08068628693206001 2.907607468531804 
-9.415962288541133 -0.38983998087585725 -0.08068628693206001 2.8176074685318047 
-9.415962288541133 -0.4498399808758573 -0.02068628693206001 2.907607468531804 
-9.355962288541134 -0.4498399808758573 -0.08068628693206001 2.8476074685318045 
-9.355962288541134 -0.38983998087585725 -0.11068628693206001 2.907607468531804 
-9.415962288541133 -0.4498399808758573 0.009313713067939988 2.787607468531805 
-9.325962288541135 -0.4198399808758573 -0.08068628693206001 3.057607468531803 
-9.415962288541133 -0.4198399808758573 -0.11068628693206001 2.8776074685318043 
-9.445962288541132 -0.4198399808758573 -0.08068628693206001 2.8776074685318043 
-9.355962288541134 -0.4498399808758573 -0.08068628693206001 2.907607468531804 
-9.445962288541132 -0.4198399808758573 -0.14068628693206 2.787607468531805 
-9.355962288541134 -0.4498399808758573 -0.11068628693206001 2.757607468531805 
-9.355962288541134 -0.4198399808758573 -0.05068628693206001 2.8176074685318047 
-9.325962288541135 -0.4198399808758573 -0.05068628693206001 2.8476074685318045 
-9.385962288541133 -0.38983998087585725 -0.08068628693206001 2.8776074685318043 
-9.385962288541133 -0.4198399808758573 -0.08068628693206001 2.787607468531805 
-9.415962288541133 -0.4198399808758573 -0.08068628693206001 2.787607468531805 
-9.415962288541133 -0.4198399808758573 -0.08068628693206001 2.907607468531804 
-9.445962288541132 -0.4498399808758573 -0.05068628693206001 2.787607468531805 
-9.385962288541133 -0.4198399808758573 0.009313713067939988 3.0276074685318033 
-9.385962288541133 -0.38983998087585725 -0.11068628693206001 2.8476074685318045 
-9.445962288541132 -0.4198399808758573 -0.11068628693206001 2.907607468531804 
-9.385962288541133 -0.4198399808758573 -0.20068628693206 2.757607468531805 
-9.355962288541134 -0.3598399808758572 -0.17068628693206 2.8476074685318045 
-9.355962288541134 -0.4498399808758573 -0.02068628693206001 2.8776074685318043 
-9.385962288541133 -0.4498399808758573 -0.14068628693206 2.8476074685318045 
-9.385962288541133 -0.4198399808758573 -0.02068628693206001 2.9676074685318037 
-9.415962288541133 -0.4198399808758573 -0.02068628693206001 2.907607468531804 
-9.355962288541134 -0.4198399808758573 -0.08068628693206001 2.907607468531804 
-9.475962288541131 -0.3598399808758572 -0.08068628693206001 2.937607468531804 
-9.325962288541135 -0.3598399808758572 -0.11068628693206001 2.907607468531804 
-9.325962288541135 -0.4198399808758573 -0.11068628693206001 2.937607468531804 
-9.445962288541132 -0.4198399808758573 -0.08068628693206001 2.907607468531804 
-9.415962288541133 -0.4198399808758573 -0.17068628693206 2.907607468531804 
-9.355962288541134 -0.4198399808758573 0.009313713067939988 2.8476074685318045 
-9.325962288541135 -0.4198399808758573 -0.08068628693206001 2.907607468531804 
-9.385962288541133 -0.4198399808758573 -0.08068628693206001 2.907607468531804 
-9.445962288541132 -0.38983998087585725 -0.14068628693206 2.787607468531805 
-9.415962288541133 -0.38983998087585725 -0.05068628693206001 2.907607468531804 
-9.415962288541133 -0.4498399808758573 -0.08068628693206001 2.907607468531804 
-9.385962288541133 -0.38983998087585725 -0.08068628693206001 3.0276074685318033 
-9.385962288541133 -0.4498399808758573 -0.11068628693206001 2.9976074685318035 
-9.415962288541133 -0.4198399808758573 -0.08068628693206001 2.937607468531804 
-9.445962288541132 -0.4498399808758573 -0.17068628693206 2.907607468531804 
-9.325962288541135 -0.4198399808758573 -0.08068628693206001 2.907607468531804 
-9.385962288541133 -0.4198399808758573 -0.11068628693206001 2.937607468531804 
-9.385962288541133 -0.4198399808758573 -0.08068628693206001 2.907607468531804 
-9.325962288541135 -0.4198399808758573 -0.14068628693206 2.8776074685318043 
-9.355962288541134 -0.4498399808758573 -0.11068628693206001 2.8476074685318045 
-9.385962288541133 -0.47983998087585733 -0.02068628693206001 2.8776074685318043 
-9.355962288541134 -0.4498399808758573 -0.08068628693206001 2.9976074685318035 
-9.385962288541133 -0.4198399808758573 -0.14068628693206 2.8776074685318043 
-9.355962288541134 -0.38983998087585725 -0.08068628693206001 2.907607468531804 
-9.385962288541133 -0.4198399808758573 -0.08068628693206001 2.8776074685318043 
-9.445962288541132 -0.4498399808758573 -0.02068628693206001 2.787607468531805 
-9.445962288541132 -0.4498399808758573 -0.11068628693206001 2.787607468531805 
-9.355962288541134 -0.3598399808758572 -0.08068628693206001 2.787607468531805 
-9.385962288541133 -0.4498399808758573 -0.02068628693206001 2.8476074685318045 
-9.445962288541132 -0.3598399808758572 0.009313713067939988 2.757607468531805 
-9.355962288541134 -0.4198399808758573 -0.14068628693206 2.8476074685318045 
-9.385962288541133 -0.4198399808758573 -0.11068628693206001 3.0276074685318033 
-9.415962288541133 -0.4198399808758573 -0.14068628693206 2.937607468531804 
-9.415962288541133 -0.4498399808758573 -0.08068628693206001 2.9976074685318035 
-9.445962288541132 -0.4498399808758573 -0.08068628693206001 2.907607468531804 
-9.355962288541134 -0.4198399808758573 -0.17068628693206 2.8176074685318047 
-9.325962288541135 -0.38983998087585725 -0.05068628693206001 2.907607468531804 
-9.415962288541133 -0.4198399808758573 -0.05068628693206001 3.057607468531803 
-9.325962288541135 -0.4198399808758573 -0.08068628693206001 3.087607468531803 
-9.385962288541133 -0.4198399808758573 -0.08068628693206001 2.907607468531804 
-9.445962288541132 -0.4198399808758573 -0.14068628693206 2.8776074685318043 
-9.385962288541133 -0.4198399808758573 -0.05068628693206001 3.0276074685318033 
-9.355962288541134 -0.4198399808758573 -0.08068628693206001 2.8476074685318045 
-9.355962288541134 -0.4198399808758573 -0.02068628693206001 2.907607468531804 
-9.445962288541132 -0.4198399808758573 -0.05068628693206001 2.8176074685318047 
-9.415962288541133 -0.3598399808758572 -0.11068628693206001 2.937607468531804 
-9.355962288541134 -0.38983998087585725 -0.05068628693206001 2.8776074685318043 
-9.445962288541132 -0.47983998087585733 -0.11068628693206001 2.8476074685318045 
-9.445962288541132 -0.4198399808758573 0.009313713067939988 2.8176074685318047 
-9.355962288541134 -0.4498399808758573 -0.11068628693206001 2.9976074685318035 
-9.415962288541133 -0.4498399808758573 -0.05068628693206001 3.0276074685318033 
-9.445962288541132 -0.4198399808758573 -0.17068628693206 2.907607468531804 
-9.325962288541135 -0.38983998087585725 -0.08068628693206001 2.8776074685318043 
-9.445962288541132 -0.38983998087585725 -0.08068628693206001 2.787607468531805 
-9.415962288541133 -0.4198399808758573 -0.05068628693206001 3.0276074685318033 
-9.415962288541133 -0.4498399808758573 -0.17068628693206 2.9976074685318035 
-9.355962288541134 -0.4498399808758573 -0.11068628693206001 2.907607468531804 
-9.445962288541132 -0.4198399808758573 -0.14068628693206 2.8176074685318047 
-9.355962288541134 -0.4498399808758573 0.03931371306793999 2.907607468531804 
-9.355962288541134 -0.3598399808758572 -0.02068628693206001 2.8476074685318045 
-9.385962288541133 -0.47983998087585733 -0.08068628693206001 2.9976074685318035 
-9.355962288541134 -0.4198399808758573 -0.08068628693206001 3.0276074685318033 
-9.385962288541133 -0.4498399808758573 0.009313713067939988 2.8476074685318045 
-9.445962288541132 -0.3598399808758572 0.009313713067939988 2.8476074685318045 
-9.415962288541133 -0.4498399808758573 -0.05068628693206001 2.907607468531804 
-9.415962288541133 -0.4498399808758573 -0.08068628693206001 2.907607468531804 
-9.415962288541133 -0.4498399808758573 -0.08068628693206001 2.8176074685318047 
-9.355962288541134 -0.4198399808758573 -0.14068628693206 2.787607468531805 
-9.385962288541133 -0.4198399808758573 -0.08068628693206001 2.907607468531804 
-9.325962288541135 -0.4198399808758573 -0.08068628693206001 2.8776074685318043 
-9.355962288541134 -0.4198399808758573 -0.08068628693206001 3.087607468531803 
-9.445962288541132 -0.4198399808758573 -0.05068628693206001 2.907607468531804 
-9.415962288541133 -0.38983998087585725 -0.05068628693206001 2.907607468531804 
-9.325962288541135 -0.38983998087585725 -0.02068628693206001 2.8476074685318045 
-9.445962288541132 -0.4498399808758573 -0.11068628693206001 2.8176074685318047 
-9.445962288541132 -0.4198399808758573 -0.08068628693206001 2.787607468531805 
-9.445962288541132 -0.4198399808758573 -0.05068628693206001 2.8776074685318043 
-9.385962288541133 -0.4498399808758573 -0.02068628693206001 2.8176074685318047 
-9.325962288541135 -0.4498399808758573 -0.17068628693206 2.8476074685318045 
-9.385962288541133 -0.3598399808758572 -0.17068628693206 2.8776074685318043 
-9.415962288541133 -0.4498399808758573 -0.08068628693206001 2.9976074685318035 
-9.415962288541133 -0.4498399808758573 -0.02068628693206001 2.907607468531804 
-9.415962288541133 -0.4198399808758573 0.009313713067939988 2.907607468531804 
-9.325962288541135 -0.4498399808758573 -0.17068628693206 2.907607468531804 
-9.415962288541133 -0.4498399808758573 -0.05068628693206001 2.9976074685318035 
-9.475962288541131 -0.4498399808758573 -0.08068628693206001 2.757607468531805 
-9.445962288541132 -0.4498399808758573 -0.08068628693206001 2.8776074685318043 
-9.445962288541132 -0.47983998087585733 -0.14068628693206 2.8776074685318043 
-9.355962288541134 -0.4498399808758573 -0.17068628693206 2.8476074685318045 
-9.415962288541133 -0.4498399808758573 -0.17068628693206 2.787607468531805 
-9.385962288541133 -0.4198399808758573 -0.02068628693206001 2.8476074685318045 
-9.385962288541133 -0.4198399808758573 -0.08068628693206001 2.8176074685318047 
-9.385962288541133 -0.47983998087585733 -0.17068628693206 2.787607468531805 
-9.325962288541135 -0.38983998087585725 -0.17068628693206 2.907607468531804 
-9.475962288541131 -0.4198399808758573 0.009313713067939988 2.8776074685318043 
-9.385962288541133 -0.4198399808758573 -0.05068628693206001 2.8776074685318043 
-9.355962288541134 -0.4498399808758573 -0.08068628693206001 2.907607468531804 
-9.355962288541134 -0.38983998087585725 0.009313713067939988 2.787607468531805 
-9.415962288541133 -0.4198399808758573 -0.02068628693206001 2.7276074685318052 
-9.385962288541133 -0.4198399808758573 -0.05068628693206001 2.8776074685318043 
-9.415962288541133 -0.38983998087585725 0.009313713067939988 2.8476074685318045 
-9.385962288541133 -0.4198399808758573 0.009313713067939988 2.757607468531805 
-9.355962288541134 -0.4198399808758573 -0.17068628693206 2.8176074685318047 
-9.415962288541133 -0.4198399808758573 0.009313713067939988 2.8776074685318043 
-9.445962288541132 -0.3598399808758572 -0.08068628693206001 2.8176074685318047 
-9.415962288541133 -0.4198399808758573 -0.05068628693206001 2.907607468531804 
-9.445962288541132 -0.4498399808758573 -0.05068628693206001 2.8776074685318043 
-9.325962288541135 -0.38983998087585725 -0.08068628693206001 2.907607468531804 
-9.415962288541133 -0.4498399808758573 -0.11068628693206001 2.9976074685318035 
-9.445962288541132 -0.4498399808758573 -0.08068628693206001 2.9676074685318037 
-9.445962288541132 -0.4498399808758573 -0.17068628693206 2.907607468531804 
-9.295962288541135 -0.4498399808758573 -0.08068628693206001 2.8476074685318045 
-9.325962288541135 -0.4498399808758573 -0.14068628693206 2.8176074685318047 
-9.355962288541134 -0.4498399808758573 -0.08068628693206001 2.907607468531804 
-9.325962288541135 -0.4498399808758573 0.03931371306793999 3.057607468531803 
-9.445962288541132 -0.38983998087585725 -0.08068628693206001 2.8776074685318043 
-9.415962288541133 -0.4498399808758573 -0.14068628693206 2.757607468531805 
-9.445962288541132 -0.38983998087585725 -0.11068628693206001 2.8176074685318047 
-9.385962288541133 -0.4198399808758573 0.009313713067939988 2.787607468531805 
-9.475962288541131 -0.4498399808758573 -0.11068628693206001 2.8476074685318045 
-9.415962288541133 -0.4198399808758573 -0.17068628693206 2.787607468531805 
-9.355962288541134 -0.4498399808758573 -0.11068628693206001 2.907607468531804 
-9.325962288541135 -0.4498399808758573 -0.08068628693206001 2.8776074685318043 
-9.385962288541133 -0.4498399808758573 -0.17068628693206 2.9976074685318035 
-9.385962288541133 -0.4498399808758573 -0.11068628693206001 2.9976074685318035 
-9.445962288541132 -0.4198399808758573 -0.08068628693206001 2.907607468531804 
-9.415962288541133 -0.4498399808758573 -0.05068628693206001 2.907607468531804 
-9.355962288541134 -0.4498399808758573 -0.08068628693206001 2.8776074685318043 
-9.385962288541133 -0.4198399808758573 -0.14068628693206 2.907607468531804 
-9.355962288541134 -0.4498399808758573 -0.08068628693206001 2.907607468531804 
-9.385962288541133 -0.38983998087585725 -0.14068628693206 3.057607468531803 
-9.385962288541133 -0.38983998087585725 -0.14068628693206 2.8476074685318045 
-9.415962288541133 -0.4198399808758573 -0.08068628693206001 2.907607468531804 
-9.325962288541135 -0.47983998087585733 -0.11068628693206001 2.907607468531804 
-9.445962288541132 -0.4498399808758573 -0.14068628693206 2.8176074685318047 
-9.445962288541132 -0.4198399808758573 -0.05068628693206001 2.8476074685318045 
-9.355962288541134 -0.38983998087585725 -0.05068628693206001 2.8476074685318045 
-9.385962288541133 -0.4498399808758573 -0.05068628693206001 2.907607468531804 
-9.415962288541133 -0.4498399808758573 -0.17068628693206 2.787607468531805 
-9.355962288541134 -0.4198399808758573 -0.08068628693206001 3.0276074685318033 
-9.445962288541132 -0.5098399808758574 -0.11068628693206001 2.787607468531805 
-9.50596228854113 -0.38983998087585725 -0.11068628693206001 2.8476074685318045 
-9.355962288541134 -0.4198399808758573 -0.14068628693206 3.057607468531803 
-9.415962288541133 -0.4198399808758573 -0.14068628693206 2.8776074685318043 
-9.385962288541133 -0.4498399808758573 -0.08068628693206001 2.9976074685318035 
-9.385962288541133 -0.3298399808758572 0.009313713067939988 2.8476074685318045 
-9.445962288541132 -0.4498399808758573 -0.08068628693206001 2.8776074685318043 
-9.445962288541132 -0.4198399808758573 -0.08068628693206001 2.8776074685318043 
-9.445962288541132 -0.4498399808758573 -0.02068628693206001 2.787607468531805 
-9.445962288541132 -0.4498399808758573 -0.14068628693206 2.907607468531804 
-9.415962288541133 -0.4498399808758573 -0.11068628693206001 2.907607468531804 
-9.445962288541132 -0.4198399808758573 -0.08068628693206001 2.8776074685318043 
-9.385962288541133 -0.4198399808758573 -0.14068628693206 2.907607468531804 
-9.325962288541135 -0.47983998087585733 -0.14068628693206 2.907607468531804 
-9.295962288541135 -0.4498399808758573 -0.14068628693206 2.8476074685318045 
-9.385962288541133 -0.4198399808758573 -0.17068628693206 3.057607468531803 
-9.445962288541132 -0.4498399808758573 -0.11068628693206001 2.9976074685318035 
-9.355962288541134 -0.4198399808758573 -0.14068628693206 2.8776074685318043 
-9.445962288541132 -0.4498399808758573 -0.05068628693206001 2.937607468531804 
-9.355962288541134 -0.4198399808758573 -0.08068628693206001 2.907607468531804 
-9.325962288541135 -0.4498399808758573 0.03931371306793999 2.937607468531804 
-9.355962288541134 -0.4498399808758573 -0.11068628693206001 2.907607468531804 
-9.295962288541135 -0.4198399808758573 -0.11068628693206001 3.087607468531803 
-9.385962288541133 -0.4498399808758573 -0.17068628693206 2.787607468531805 
-9.415962288541133 -0.4198399808758573 -0.08068628693206001 2.8176074685318047 
-9.475962288541131 -0.38983998087585725 -0.11068628693206001 2.937607468531804 
-9.415962288541133 -0.4198399808758573 -0.08068628693206001 3.057607468531803 
-9.445962288541132 -0.47983998087585733 -0.11068628693206001 2.787607468531805 
-9.355962288541134 -0.38983998087585725 -0.08068628693206001 2.907607468531804 
-9.355962288541134 -0.38983998087585725 -0.11068628693206001 2.907607468531804 
-9.445962288541132 -0.4198399808758573 -0.08068628693206001 2.757607468531805 
-9.445962288541132 -0.4498399808758573 -0.02068628693206001 2.8776074685318043 
-9.445962288541132 -0.38983998087585725 -0.05068628693206001 2.8776074685318043 
-9.445962288541132 -0.4198399808758573 -0.14068628693206 2.937607468531804 
-9.385962288541133 -0.4198399808758573 -0.02068628693206001 2.907607468531804 
-9.445962288541132 -0.38983998087585725 -0.14068628693206 2.937607468531804 
-9.475962288541131 -0.4498399808758573 -0.08068628693206001 2.907607468531804 
-9.355962288541134 -0.4498399808758573 0.009313713067939988 2.907607468531804 
-9.445962288541132 -0.4198399808758573 -0.17068628693206 2.757607468531805 
-9.445962288541132 -0.38983998087585725 0.009313713067939988 2.8476074685318045 
-9.445962288541132 -0.4198399808758573 -0.08068628693206001 2.757607468531805 
-9.445962288541132 -0.4198399808758573 -0.08068628693206001 2.757607468531805 
-9.355962288541134 -0.47983998087585733 -0.08068628693206001 2.907607468531804 
-9.355962288541134 -0.4198399808758573 -0.17068628693206 2.8476074685318045 
-9.415962288541133 -0.4198399808758573 -0.05068628693206001 2.8776074685318043 
-9.385962288541133 -0.4198399808758573 -0.14068628693206 2.787607468531805 
-9.385962288541133 -0.4198399808758573 -0.11068628693206001 2.8176074685318047 
-9.445962288541132 -0.4198399808758573 -0.08068628693206001 2.8776074685318043 
-9.355962288541134 -0.4498399808758573 -0.08068628693206001 2.8776074685318043 
-9.385962288541133 -0.4198399808758573 -0.08068628693206001 2.937607468531804 
-9.385962288541133 -0.4198399808758573 -0.05068628693206001 2.907607468531804 
-9.445962288541132 -0.47983998087585733 -0.14068628693206 2.8776074685318043 
-9.355962288541134 -0.4198399808758573 -0.08068628693206001 2.9976074685318035 
-9.325962288541135 -0.4498399808758573 -0.17068628693206 3.1176074685318027 
-9.385962288541133 -0.4198399808758573 -0.08068628693206001 2.907607468531804 
-9.445962288541132 -0.4198399808758573 -0.08068628693206001 2.8776074685318043 
-9.445962288541132 -0.4198399808758573 -0.20068628693206 2.8476074685318045 
-9.325962288541135 -0.4498399808758573 -0.08068628693206001 2.787607468531805 
-9.355962288541134 -0.4498399808758573 -0.02068628693206001 2.8476074685318045 
-9.415962288541133 -0.38983998087585725 -0.08068628693206001 3.0276074685318033 
-9.325962288541135 -0.38983998087585725 -0.14068628693206 3.057607468531803 
-9.415962288541133 -0.4198399808758573 -0.05068628693206001 2.937607468531804 
-9.385962288541133 -0.47983998087585733 -0.05068628693206001 2.9976074685318035 
-9.415962288541133 -0.4498399808758573 -0.08068628693206001 2.907607468531804 
-9.415962288541133 -0.4498399808758573 -0.08068628693206001 2.907607468531804 
-9.355962288541134 -0.4498399808758573 0.009313713067939988 2.8476074685318045 
-9.445962288541132 -0.4498399808758573 -0.17068628693206 2.907607468531804 
-9.445962288541132 -0.4198399808758573 -0.08068628693206001 2.8176074685318047 
-9.385962288541133 -0.4198399808758573 -0.08068628693206001 2.907607468531804 
-9.445962288541132 -0.4498399808758573 -0.08068628693206001 2.907607468531804 
-9.385962288541133 -0.4198399808758573 -0.08068628693206001 2.9976074685318035 
-9.445962288541132 -0.3598399808758572 0.009313713067939988 2.787607468531805 
-9.385962288541133 -0.4198399808758573 -0.02068628693206001 2.907607468531804 
-9.415962288541133 -0.4498399808758573 -0.08068628693206001 2.787607468531805 
-9.385962288541133 -0.4198399808758573 -0.08068628693206001 2.907607468531804 
-9.475962288541131 -0.3598399808758572 -0.11068628693206001 2.8776074685318043 
-9.415962288541133 -0.38983998087585725 -0.08068628693206001 2.9676074685318037 
-9.475962288541131 -0.38983998087585725 -0.11068628693206001 2.907607468531804 
-9.325962288541135 -0.4498399808758573 -0.17068628693206 2.8476074685318045 
-9.355962288541134 -0.4198399808758573 -0.08068628693206001 2.937607468531804 
-9.295962288541135 -0.4198399808758573 -0.11068628693206001 2.937607468531804 
-9.445962288541132 -0.4498399808758573 -0.08068628693206001 2.907607468531804 
-9.325962288541135 -0.4498399808758573 -0.08068628693206001 2.937607468531804 
-9.415962288541133 -0.4498399808758573 -0.08068628693206001 3.087607468531803 
-9.415962288541133 -0.4198399808758573 0.009313713067939988 2.8176074685318047 
-9.415962288541133 -0.4198399808758573 -0.08068628693206001 2.8776074685318043 
-9.385962288541133 -0.4498399808758573 -0.05068628693206001 2.8476074685318045 
-9.415962288541133 -0.4198399808758573 0.009313713067939988 2.787607468531805 
-9.325962288541135 -0.4498399808758573 -0.08068628693206001 2.8776074685318043 
-9.385962288541133 -0.4498399808758573 -0.08068628693206001 2.8476074685318045 
-9.325962288541135 -0.38983998087585725 -0.08068628693206001 2.937607468531804 
-9.325962288541135 -0.38983998087585725 -0.08068628693206001 2.907607468531804 
-9.385962288541133 -0.4498399808758573 -0.08068628693206001 2.907607468531804 
-9.385962288541133 -0.4198399808758573 -0.08068628693206001 2.907607468531804 
-9.355962288541134 -0.4498399808758573 0.009313713067939988 2.8476074685318045 
-9.385962288541133 -0.4198399808758573 -0.08068628693206001 2.907607468531804 
-9.445962288541132 -0.47983998087585733 -0.17068628693206 2.8176074685318047 
-9.445962288541132 -0.4198399808758573 -0.08068628693206001 2.907607468531804 
-9.355962288541134 -0.4498399808758573 -0.08068628693206001 2.907607468531804 
-9.415962288541133 -0.4198399808758573 -0.05068628693206001 2.8776074685318043 
-9.355962288541134 -0.4498399808758573 -0.05068628693206001 2.907607468531804 
-9.445962288541132 -0.4498399808758573 -0.02068628693206001 2.937607468531804 
-9.355962288541134 -0.4198399808758573 -0.08068628693206001 2.8776074685318043 
-9.445962288541132 -0.4498399808758573 -0.11068628693206001 2.8476074685318045 
-9.355962288541134 -0.47983998087585733 -0.14068628693206 2.8776074685318043 
-9.415962288541133 -0.4198399808758573 -0.02068628693206001 2.907607468531804 
-9.415962288541133 -0.4198399808758573 -0.08068628693206001 2.937607468531804 
-9.445962288541132 -0.4198399808758573 -0.08068628693206001 2.8776074685318043 
-9.415962288541133 -0.4498399808758573 -0.05068628693206001 3.0276074685318033 
-9.445962288541132 -0.4498399808758573 -0.17068628693206 2.787607468531805 
-9.445962288541132 -0.4498399808758573 -0.17068628693206 2.787607468531805 
-9.325962288541135 -0.4198399808758573 -0.08068628693206001 2.8776074685318043 
-9.415962288541133 -0.38983998087585725 -0.02068628693206001 2.8476074685318045 
-9.415962288541133 -0.38983998087585725 -0.17068628693206 2.8176074685318047 
-9.325962288541135 -0.47983998087585733 -0.05068628693206001 2.787607468531805 
-9.355962288541134 -0.4198399808758573 -0.11068628693206001 2.8476074685318045 
-9.295962288541135 -0.38983998087585725 -0.05068628693206001 2.757607468531805 
-9.355962288541134 -0.47983998087585733 -0.08068628693206001 2.787607468531805 
-9.415962288541133 -0.4498399808758573 0.009313713067939988 3.0276074685318033 
-9.445962288541132 -0.4498399808758573 0.009313713067939988 2.907607468531804 
-9.355962288541134 -0.4498399808758573 -0.14068628693206 2.907607468531804 
-9.325962288541135 -0.4498399808758573 -0.08068628693206001 2.757607468531805 
-9.415962288541133 -0.4498399808758573 -0.02068628693206001 2.787607468531805 
-9.355962288541134 -0.4198399808758573 0.009313713067939988 2.8776074685318043 
-9.415962288541133 -0.4198399808758573 -0.05068628693206001 2.937607468531804 
-9.445962288541132 -0.4498399808758573 0.009313713067939988 2.907607468531804 
-9.355962288541134 -0.4198399808758573 -0.11068628693206001 2.787607468531805 
-9.415962288541133 -0.47983998087585733 -0.14068628693206 2.787607468531805 
-9.415962288541133 -0.4198399808758573 -0.20068628693206 2.8776074685318043 
-9.355962288541134 -0.4198399808758573 -0.08068628693206001 2.907607468531804 
-9.325962288541135 -0.4498399808758573 -0.05068628693206001 2.8776074685318043 
-9.445962288541132 -0.4498399808758573 -0.08068628693206001 2.8776074685318043 
-9.355962288541134 -0.4198399808758573 -0.14068628693206 2.937607468531804 
-9.385962288541133 -0.3598399808758572 -0.17068628693206 2.8776074685318043 
-9.355962288541134 -0.4198399808758573 -0.20068628693206 2.757607468531805 
-9.415962288541133 -0.4198399808758573 -0.11068628693206001 2.907607468531804 
-9.445962288541132 -0.4498399808758573 -0.08068628693206001 2.757607468531805 
-9.385962288541133 -0.4198399808758573 -0.08068628693206001 2.907607468531804 
-9.355962288541134 -0.4198399808758573 -0.02068628693206001 2.8776074685318043 
-9.475962288541131 -0.4198399808758573 -0.08068628693206001 2.907607468531804 
-9.385962288541133 -0.4498399808758573 -0.05068628693206001 2.8776074685318043 
-9.445962288541132 -0.4498399808758573 -0.17068628693206 2.8476074685318045 
-9.355962288541134 -0.4198399808758573 -0.05068628693206001 2.907607468531804 
-9.445962288541132 -0.47983998087585733 -0.08068628693206001 2.907607468531804 
-9.355962288541134 -0.4198399808758573 -0.20068628693206 2.757607468531805 
-9.355962288541134 -0.4498399808758573 -0.08068628693206001 2.907607468531804 
-9.475962288541131 -0.4198399808758573 -0.14068628693206 2.8776074685318043 
-9.355962288541134 -0.4498399808758573 -0.11068628693206001 2.8176074685318047 
-9.445962288541132 -0.4498399808758573 -0.08068628693206001 2.787607468531805 
-9.475962288541131 -0.4498399808758573 -0.14068628693206 3.0276074685318033 
-9.415962288541133 -0.4198399808758573 -0.08068628693206001 2.9976074685318035 
-9.415962288541133 -0.4198399808758573 -0.02068628693206001 2.8776074685318043 
-9.385962288541133 -0.4198399808758573 -0.14068628693206 2.8776074685318043 
-9.475962288541131 -0.4198399808758573 -0.11068628693206001 2.8776074685318043 
-9.415962288541133 -0.38983998087585725 -0.17068628693206 2.907607468531804 
-9.325962288541135 -0.4498399808758573 -0.14068628693206 2.787607468531805 
-9.445962288541132 -0.38983998087585725 -0.05068628693206001 2.787607468531805 
-9.445962288541132 -0.4498399808758573 -0.14068628693206 2.787607468531805 
-9.415962288541133 -0.38983998087585725 -0.17068628693206 2.8776074685318043 
-9.325962288541135 -0.38983998087585725 -0.08068628693206001 2.9976074685318035 
-9.355962288541134 -0.38983998087585725 -0.11068628693206001 2.907607468531804 
-9.385962288541133 -0.4498399808758573 -0.02068628693206001 2.787607468531805 
-9.385962288541133 -0.4198399808758573 -0.02068628693206001 2.8176074685318047 
-9.355962288541134 -0.38983998087585725 -0.11068628693206001 2.8776074685318043 
-9.445962288541132 -0.4498399808758573 -0.17068628693206 2.787607468531805 
-9.355962288541134 -0.4498399808758573 -0.05068628693206001 2.8476074685318045 
-9.445962288541132 -0.4498399808758573 -0.14068628693206 2.787607468531805 
-9.415962288541133 -0.4498399808758573 -0.11068628693206001 3.0276074685318033 
-9.475962288541131 -0.38983998087585725 -0.08068628693206001 2.8776074685318043 
-9.325962288541135 -0.4198399808758573 -0.11068628693206001 2.907607468531804 
-9.475962288541131 -0.3598399808758572 -0.17068628693206 2.787607468531805 
-9.415962288541133 -0.4498399808758573 -0.17068628693206 2.907607468531804 
-9.445962288541132 -0.4198399808758573 -0.14068628693206 2.787607468531805 
-9.415962288541133 -0.4198399808758573 -0.08068628693206001 2.907607468531804 
-9.355962288541134 -0.4198399808758573 -0.08068628693206001 2.907607468531804 
-9.385962288541133 -0.4498399808758573 -0.08068628693206001 2.907607468531804 
-9.415962288541133 -0.4498399808758573 -0.05068628693206001 2.937607468531804 
-9.385962288541133 -0.38983998087585725 -0.05068628693206001 2.907607468531804 
-9.355962288541134 -0.4198399808758573 -0.08068628693206001 2.907607468531804 
-9.325962288541135 -0.4198399808758573 -0.08068628693206001 2.907607468531804 
-9.325962288541135 -0.4498399808758573 -0.08068628693206001 2.937607468531804 
-9.385962288541133 -0.4198399808758573 -0.08068628693206001 2.907607468531804 
-9.415962288541133 -0.4498399808758573 0.009313713067939988 2.907607468531804 
-9.325962288541135 -0.38983998087585725 -0.17068628693206 2.8476074685318045 
-9.415962288541133 -0.38983998087585725 -0.14068628693206 2.8476074685318045 
-9.385962288541133 -0.47983998087585733 -0.05068628693206001 2.907607468531804 
-9.445962288541132 -0.4198399808758573 -0.11068628693206001 2.8776074685318043 
-9.445962288541132 -0.4498399808758573 -0.14068628693206 2.757607468531805 
-9.445962288541132 -0.4498399808758573 -0.08068628693206001 2.787607468531805 
-9.415962288541133 -0.4198399808758573 -0.08068628693206001 2.757607468531805 
-9.445962288541132 -0.38983998087585725 -0.08068628693206001 2.8776074685318043 
-9.445962288541132 -0.47983998087585733 -0.02068628693206001 2.787607468531805 
-9.445962288541132 -0.4498399808758573 -0.05068628693206001 2.907607468531804 
-9.385962288541133 -0.4198399808758573 -0.11068628693206001 2.937607468531804 
-9.445962288541132 -0.47983998087585733 0.009313713067939988 2.8176074685318047 
-9.475962288541131 -0.4198399808758573 -0.11068628693206001 2.757607468531805 
-9.355962288541134 -0.38983998087585725 -0.05068628693206001 2.907607468531804 
-9.445962288541132 -0.4498399808758573 -0.05068628693206001 2.907607468531804 
-9.445962288541132 -0.3598399808758572 -0.11068628693206001 2.937607468531804 
-9.415962288541133 -0.4198399808758573 -0.14068628693206 2.757607468531805 
-9.355962288541134 -0.4498399808758573 -0.08068628693206001 2.8476074685318045 
-9.445962288541132 -0.4498399808758573 -0.02068628693206001 2.9676074685318037 
-9.415962288541133 -0.4198399808758573 -0.08068628693206001 2.757607468531805 
-9.355962288541134 -0.4498399808758573 -0.08068628693206001 3.0276074685318033 
-9.355962288541134 -0.4198399808758573 -0.02068628693206001 2.8776074685318043 
-9.325962288541135 -0.4198399808758573 -0.20068628693206 2.907607468531804 
-9.355962288541134 -0.4498399808758573 -0.08068628693206001 2.907607468531804 
-9.385962288541133 -0.47983998087585733 -0.14068628693206 2.907607468531804 
-9.325962288541135 -0.4198399808758573 -0.11068628693206001 2.8776074685318043 
-9.415962288541133 -0.4498399808758573 -0.05068628693206001 2.907607468531804 
-9.415962288541133 -0.4198399808758573 -0.11068628693206001 2.787607468531805 
-9.415962288541133 -0.4498399808758573 -0.02068628693206001 2.907607468531804 
-9.415962288541133 -0.4198399808758573 -0.02068628693206001 2.8476074685318045 
-9.445962288541132 -0.4198399808758573 -0.17068628693206 2.8476074685318045 
-9.385962288541133 -0.4198399808758573 -0.02068628693206001 2.9976074685318035 
-9.445962288541132 -0.4498399808758573 -0.11068628693206001 2.8776074685318043 
-9.385962288541133 -0.4498399808758573 -0.02068628693206001 2.8476074685318045 
-9.445962288541132 -0.38983998087585725 -0.17068628693206 2.8776074685318043 
