500
-9.385962288541133 -0.4498399808758573 0.06931371306793999 1.1172367432577872 
-9.50596228854113 -0.47983998087585733 0.009313713067939988 2.8176074685318047 
-9.325962288541135 -0.5398399808758574 -0.02068628693206001 2.907607468531804 
-9.325962288541135 -0.5098399808758574 0.009313713067939988 2.907607468531804 
-9.475962288541131 -0.5098399808758574 0.009313713067939988 1.2372367432577873 
-9.325962288541135 -0.5398399808758574 0.009313713067939988 2.8776074685318043 
-7.857071925912971 -0.4498399808758573 0.06931371306793999 2.907607468531804 
-7.82707192591297 -0.47983998087585733 -0.11068628693206001 1.1472367432577872 
-7.707071925912969 -0.47983998087585733 0.009313713067939988 2.907607468531804 
-9.385962288541133 -0.47983998087585733 -0.11068628693206001 2.907607468531804 
-7.73707192591297 -0.47983998087585733 -0.11068628693206001 2.8476074685318045 
-7.82707192591297 -0.47983998087585733 0.06931371306793999 1.1172367432577872 
-9.475962288541131 -0.5098399808758574 0.009313713067939988 2.8776074685318043 
-9.325962288541135 -0.47983998087585733 0.03931371306793999 1.2372367432577873 
-9.56596228854113 -0.5098399808758574 0.03931371306793999 1.2372367432577873 
-9.355962288541134 -0.47983998087585733 -0.02068628693206001 2.8476074685318045 
-9.325962288541135 -0.5098399808758574 -0.02068628693206001 1.2372367432577873 
-7.79707192591297 -0.47983998087585733 0.009313713067939988 1.2372367432577873 
-9.385962288541133 -0.47983998087585733 0.06931371306793999 2.8776074685318043 
-7.79707192591297 -0.5098399808758574 0.009313713067939988 1.2072367432577873 
-9.445962288541132 -0.4498399808758573 0.06931371306793999 1.896923741830167 
-9.385962288541133 -0.47983998087585733 -0.02068628693206001 1.1472367432577872 
-9.325962288541135 -0.5098399808758574 -0.02068628693206001 1.2372367432577873 
-7.857071925912971 -0.4498399808758573 0.06931371306793999 2.907607468531804 
-9.385962288541133 -0.5098399808758574 -0.05068628693206001 1.896923741830167 
-7.82707192591297 -0.47983998087585733 0.09931371306793998 2.8776074685318043 
-7.79707192591297 -0.4498399808758573 0.009313713067939988 1.1172367432577872 
-9.445962288541132 -0.4498399808758573 0.009313713067939988 1.1472367432577872 
-9.53596228854113 -0.4498399808758573 0.06931371306793999 2.8776074685318043 
-9.325962288541135 -0.47983998087585733 -0.02068628693206001 2.907607468531804 
-9.415962288541133 -0.47983998087585733 0.03931371306793999 1.896923741830167 
-9.385962288541133 -0.47983998087585733 -0.11068628693206001 1.1472367432577872 
-9.475962288541131 -0.47983998087585733 0.06931371306793999 1.896923741830167 
-9.325962288541135 -0.47983998087585733 -0.02068628693206001 2.907607468531804 
-7.79707192591297 -0.4498399808758573 0.03931371306793999 2.8476074685318045 
-9.355962288541134 -0.5098399808758574 0.03931371306793999 1.2372367432577873 
-9.355962288541134 -0.47983998087585733 0.03931371306793999 1.926923741830167 
-7.73707192591297 -0.4498399808758573 -0.02068628693206001 2.907607468531804 
-9.325962288541135 -0.47983998087585733 -0.02068628693206001 2.907607468531804 
-7.82707192591297 -0.47983998087585733 0.06931371306793999 2.8776074685318043 
-7.82707192591297 -0.4198399808758573 0.03931371306793999 2.907607468531804 
-7.73707192591297 -0.4498399808758573 0.06931371306793999 2.8776074685318043 
-9.325962288541135 -0.47983998087585733 0.06931371306793999 1.926923741830167 
-9.355962288541134 -0.5098399808758574 0.06931371306793999 1.2372367432577873 
-9.385962288541133 -0.47983998087585733 0.03931371306793999 1.956923741830167 
-9.415962288541133 -0.47983998087585733 -0.02068628693206001 2.8776074685318043 
-7.79707192591297 -0.47983998087585733 0.06931371306793999 1.986923741830167 
-9.53596228854113 -0.4498399808758573 0.009313713067939988 1.1772367432577873 
-7.82707192591297 -0.4498399808758573 -0.02068628693206001 2.907607468531804 
-9.415962288541133 -0.5098399808758574 0.009313713067939988 2.8776074685318043 
-9.385962288541133 -0.5098399808758574 -0.11068628693206001 1.896923741830167 
-7.82707192591297 -0.5398399808758574 0.06931371306793999 2.8776074685318043 
-9.53596228854113 -0.4498399808758573 0.009313713067939988 1.1472367432577872 
-9.325962288541135 -0.5398399808758574 -0.02068628693206001 2.907607468531804 
-9.355962288541134 -0.47983998087585733 0.009313713067939988 1.1172367432577872 
-9.325962288541135 -0.5398399808758574 0.06931371306793999 2.8776074685318043 
-7.887071925912971 -0.47983998087585733 0.03931371306793999 2.907607468531804 
-9.295962288541135 -0.5398399808758574 -0.05068628693206001 1.896923741830167 
-9.415962288541133 -0.4498399808758573 0.09931371306793998 2.907607468531804 
-7.82707192591297 -0.4498399808758573 0.06931371306793999 2.907607468531804 
-7.79707192591297 -0.47983998087585733 0.06931371306793999 1.956923741830167 
-7.857071925912971 -0.5698399808758574 -0.02068628693206001 2.8476074685318045 
-9.355962288541134 -0.47983998087585733 0.009313713067939988 2.8476074685318045 
-9.325962288541135 -0.5098399808758574 0.03931371306793999 2.937607468531804 
-9.56596228854113 -0.4498399808758573 0.009313713067939988 2.9676074685318037 
-9.50596228854113 -0.47983998087585733 0.06931371306793999 2.8176074685318047 
-9.475962288541131 -0.4498399808758573 0.06931371306793999 2.907607468531804 
-9.415962288541133 -0.47983998087585733 0.03931371306793999 1.986923741830167 
-9.445962288541132 -0.4498399808758573 0.12931371306793998 2.907607468531804 
-9.385962288541133 -0.5098399808758574 0.009313713067939988 2.8776074685318043 
-9.355962288541134 -0.4498399808758573 0.06931371306793999 1.1472367432577872 
-9.475962288541131 -0.47983998087585733 0.03931371306793999 1.926923741830167 
-9.50596228854113 -0.47983998087585733 0.06931371306793999 1.956923741830167 
-7.82707192591297 -0.4498399808758573 -0.02068628693206001 2.907607468531804 
-9.415962288541133 -0.47983998087585733 0.06931371306793999 2.8476074685318045 
-9.355962288541134 -0.5698399808758574 0.06931371306793999 1.1172367432577872 
-9.415962288541133 -0.4498399808758573 0.06931371306793999 1.896923741830167 
-7.82707192591297 -0.4498399808758573 0.06931371306793999 1.896923741830167 
-7.82707192591297 -0.4498399808758573 -0.11068628693206001 1.926923741830167 
-7.79707192591297 -0.47983998087585733 0.03931371306793999 2.937607468531804 
-7.857071925912971 -0.4498399808758573 -0.05068628693206001 2.8476074685318045 
-9.355962288541134 -0.47983998087585733 0.009313713067939988 2.937607468531804 
-9.325962288541135 -0.47983998087585733 -0.02068628693206001 2.937607468531804 
-7.82707192591297 -0.4498399808758573 0.06931371306793999 1.1472367432577872 
-7.82707192591297 -0.4498399808758573 -0.05068628693206001 1.2372367432577873 
-7.707071925912969 -0.4498399808758573 -0.02068628693206001 1.1172367432577872 
-9.415962288541133 -0.5698399808758574 0.06931371306793999 1.896923741830167 
-9.355962288541134 -0.47983998087585733 -0.02068628693206001 1.1172367432577872 
-9.445962288541132 -0.47983998087585733 0.06931371306793999 2.8176074685318047 
-9.355962288541134 -0.5698399808758574 0.06931371306793999 2.907607468531804 
-9.415962288541133 -0.5098399808758574 0.06931371306793999 1.2372367432577873 
-9.475962288541131 -0.4498399808758573 0.06931371306793999 1.1172367432577872 
-7.707071925912969 -0.5398399808758574 0.03931371306793999 1.956923741830167 
-7.73707192591297 -0.47983998087585733 -0.05068628693206001 2.8776074685318043 
-7.79707192591297 -0.5098399808758574 0.03931371306793999 1.0872367432577872 
-9.415962288541133 -0.47983998087585733 0.09931371306793998 2.8476074685318045 
-9.355962288541134 -0.4498399808758573 0.06931371306793999 1.2672367432577873 
-7.887071925912971 -0.5098399808758574 0.06931371306793999 2.8476074685318045 
-9.355962288541134 -0.5098399808758574 0.03931371306793999 2.8776074685318043 
-9.415962288541133 -0.47983998087585733 -0.11068628693206001 1.896923741830167 
-9.325962288541135 -0.47983998087585733 0.03931371306793999 2.907607468531804 
-9.475962288541131 -0.47983998087585733 0.06931371306793999 1.1472367432577872 
-7.82707192591297 -0.4498399808758573 0.009313713067939988 1.2372367432577873 
-9.50596228854113 -0.47983998087585733 0.009313713067939988 1.1172367432577872 
-7.857071925912971 -0.4498399808758573 -0.02068628693206001 2.8776074685318043 
-9.355962288541134 -0.4498399808758573 -0.02068628693206001 1.1472367432577872 
-9.355962288541134 -0.4498399808758573 0.03931371306793999 1.2072367432577873 
-9.355962288541134 -0.4498399808758573 0.03931371306793999 1.956923741830167 
-7.82707192591297 -0.5098399808758574 0.009313713067939988 1.2372367432577873 
-7.82707192591297 -0.47983998087585733 0.009313713067939988 1.926923741830167 
-9.475962288541131 -0.47983998087585733 0.009313713067939988 1.896923741830167 
-9.355962288541134 -0.47983998087585733 0.009313713067939988 1.0872367432577872 
-7.82707192591297 -0.47983998087585733 0.06931371306793999 2.8776074685318043 
-9.385962288541133 -0.47983998087585733 -0.14068628693206 1.0872367432577872 
-9.53596228854113 -0.47983998087585733 0.009313713067939988 2.907607468531804 
-9.385962288541133 -0.47983998087585733 -0.02068628693206001 2.907607468531804 
-9.475962288541131 -0.47983998087585733 0.009313713067939988 2.8176074685318047 
-9.53596228854113 -0.47983998087585733 0.03931371306793999 1.2372367432577873 
-7.76707192591297 -0.4498399808758573 0.09931371306793998 2.8776074685318043 
-7.82707192591297 -0.47983998087585733 -0.11068628693206001 2.907607468531804 
-7.82707192591297 -0.4498399808758573 -0.08068628693206001 2.8176074685318047 
-9.50596228854113 -0.5098399808758574 -0.02068628693206001 2.8176074685318047 
-9.325962288541135 -0.47983998087585733 0.06931371306793999 1.956923741830167 
-9.53596228854113 -0.5098399808758574 0.03931371306793999 1.896923741830167 
-9.445962288541132 -0.4498399808758573 0.009313713067939988 1.1472367432577872 
-7.82707192591297 -0.5098399808758574 0.009313713067939988 1.2072367432577873 
-9.385962288541133 -0.47983998087585733 0.06931371306793999 1.1172367432577872 
-7.82707192591297 -0.4498399808758573 0.03931371306793999 2.8476074685318045 
-9.355962288541134 -0.47983998087585733 -0.11068628693206001 1.1772367432577873 
-9.475962288541131 -0.47983998087585733 0.06931371306793999 1.926923741830167 
-9.415962288541133 -0.4498399808758573 0.03931371306793999 2.8776074685318043 
-7.76707192591297 -0.47983998087585733 -0.11068628693206001 1.956923741830167 
-9.355962288541134 -0.5398399808758574 0.03931371306793999 1.2072367432577873 
-7.73707192591297 -0.5098399808758574 -0.02068628693206001 2.8476074685318045 
-7.79707192591297 -0.4498399808758573 0.09931371306793998 1.1472367432577872 
-7.707071925912969 -0.47983998087585733 0.03931371306793999 1.926923741830167 
-7.677071925912969 -0.47983998087585733 0.03931371306793999 1.1172367432577872 
-9.355962288541134 -0.5098399808758574 0.009313713067939988 1.1172367432577872 
-9.415962288541133 -0.47983998087585733 0.03931371306793999 2.907607468531804 
-9.325962288541135 -0.4498399808758573 -0.02068628693206001 1.896923741830167 
-7.82707192591297 -0.5398399808758574 -0.02068628693206001 1.1172367432577872 
-7.82707192591297 -0.47983998087585733 0.06931371306793999 2.8176074685318047 
-9.355962288541134 -0.4498399808758573 0.009313713067939988 2.937607468531804 
-9.475962288541131 -0.5098399808758574 0.009313713067939988 2.907607468531804 
-7.82707192591297 -0.4498399808758573 -0.02068628693206001 2.907607468531804 
-9.325962288541135 -0.47983998087585733 0.06931371306793999 1.896923741830167 
-7.73707192591297 -0.47983998087585733 0.06931371306793999 2.8476074685318045 
-9.415962288541133 -0.47983998087585733 0.06931371306793999 2.8776074685318043 
-7.82707192591297 -0.47983998087585733 -0.02068628693206001 2.8776074685318043 
-7.82707192591297 -0.4498399808758573 -0.02068628693206001 2.8776074685318043 
-9.325962288541135 -0.47983998087585733 0.06931371306793999 1.926923741830167 
-7.79707192591297 -0.47983998087585733 0.06931371306793999 2.937607468531804 
-9.50596228854113 -0.5098399808758574 0.03931371306793999 2.8776074685318043 
-9.355962288541134 -0.5398399808758574 -0.02068628693206001 2.907607468531804 
-9.385962288541133 -0.47983998087585733 0.06931371306793999 2.8776074685318043 
-7.82707192591297 -0.47983998087585733 -0.02068628693206001 1.1472367432577872 
-7.79707192591297 -0.47983998087585733 -0.05068628693206001 2.937607468531804 
-7.82707192591297 -0.5098399808758574 0.06931371306793999 1.1172367432577872 
-9.385962288541133 -0.4498399808758573 -0.02068628693206001 2.907607468531804 
-7.82707192591297 -0.4498399808758573 -0.11068628693206001 2.8176074685318047 
-9.355962288541134 -0.4498399808758573 0.03931371306793999 1.866923741830167 
-9.385962288541133 -0.47983998087585733 -0.02068628693206001 1.2072367432577873 
-9.385962288541133 -0.5098399808758574 -0.02068628693206001 2.9676074685318037 
-9.475962288541131 -0.47983998087585733 -0.05068628693206001 2.8776074685318043 
-7.82707192591297 -0.4498399808758573 0.03931371306793999 2.907607468531804 
-9.385962288541133 -0.5698399808758574 0.06931371306793999 2.907607468531804 
-9.475962288541131 -0.47983998087585733 0.03931371306793999 2.8776074685318043 
-7.857071925912971 -0.5098399808758574 -0.02068628693206001 1.2372367432577873 
-7.82707192591297 -0.5098399808758574 0.06931371306793999 2.907607468531804 
-7.82707192591297 -0.47983998087585733 0.06931371306793999 2.8476074685318045 
-7.82707192591297 -0.4498399808758573 -0.02068628693206001 1.2372367432577873 
-9.355962288541134 -0.47983998087585733 0.03931371306793999 1.956923741830167 
-9.355962288541134 -0.5698399808758574 0.009313713067939988 2.8776074685318043 
-9.325962288541135 -0.5398399808758574 0.06931371306793999 1.2372367432577873 
-9.53596228854113 -0.4498399808758573 0.009313713067939988 2.907607468531804 
-9.475962288541131 -0.4498399808758573 0.06931371306793999 1.2372367432577873 
-9.325962288541135 -0.47983998087585733 0.06931371306793999 2.9676074685318037 
-9.50596228854113 -0.4198399808758573 0.09931371306793998 2.937607468531804 
-7.79707192591297 -0.5098399808758574 -0.02068628693206001 1.956923741830167 
-7.857071925912971 -0.5098399808758574 0.03931371306793999 1.0572367432577872 
-9.53596228854113 -0.5398399808758574 0.03931371306793999 1.1472367432577872 
-9.385962288541133 -0.5698399808758574 -0.02068628693206001 1.896923741830167 
-9.325962288541135 -0.5098399808758574 0.009313713067939988 1.2372367432577873 
-7.79707192591297 -0.4498399808758573 -0.05068628693206001 1.956923741830167 
-9.355962288541134 -0.5098399808758574 -0.02068628693206001 1.956923741830167 
-7.707071925912969 -0.4498399808758573 0.03931371306793999 1.926923741830167 
-7.82707192591297 -0.5398399808758574 0.009313713067939988 2.8476074685318045 
-7.82707192591297 -0.47983998087585733 -0.02068628693206001 1.956923741830167 
-7.82707192591297 -0.4498399808758573 -0.02068628693206001 1.1772367432577873 
-9.53596228854113 -0.4498399808758573 -0.02068628693206001 1.1172367432577872 
-9.56596228854113 -0.4498399808758573 0.03931371306793999 1.2372367432577873 
-7.76707192591297 -0.5098399808758574 0.009313713067939988 2.907607468531804 
-9.475962288541131 -0.47983998087585733 0.03931371306793999 2.9676074685318037 
-7.82707192591297 -0.4498399808758573 0.009313713067939988 2.8776074685318043 
-9.385962288541133 -0.5098399808758574 -0.02068628693206001 1.2372367432577873 
-9.50596228854113 -0.5098399808758574 0.09931371306793998 1.896923741830167 
-9.325962288541135 -0.5098399808758574 0.009313713067939988 2.8776074685318043 
-9.415962288541133 -0.47983998087585733 -0.02068628693206001 1.1172367432577872 
-7.82707192591297 -0.5398399808758574 -0.02068628693206001 1.0872367432577872 
-9.385962288541133 -0.5098399808758574 -0.14068628693206 1.1472367432577872 
-9.325962288541135 -0.5098399808758574 -0.02068628693206001 1.2372367432577873 
-7.857071925912971 -0.4498399808758573 0.06931371306793999 1.1472367432577872 
-9.295962288541135 -0.5098399808758574 -0.02068628693206001 2.9676074685318037 
-9.325962288541135 -0.47983998087585733 0.03931371306793999 1.896923741830167 
-7.73707192591297 -0.5098399808758574 -0.05068628693206001 2.907607468531804 
-7.82707192591297 -0.5398399808758574 -0.02068628693206001 1.0872367432577872 
-9.56596228854113 -0.5098399808758574 -0.02068628693206001 1.2372367432577873 
-7.82707192591297 -0.5098399808758574 -0.02068628693206001 1.0872367432577872 
-7.857071925912971 -0.5398399808758574 0.06931371306793999 1.1172367432577872 
-7.857071925912971 -0.5098399808758574 0.03931371306793999 1.956923741830167 
-9.385962288541133 -0.47983998087585733 -0.05068628693206001 2.8476074685318045 
-9.325962288541135 -0.4498399808758573 -0.05068628693206001 1.2372367432577873 
-7.79707192591297 -0.47983998087585733 -0.08068628693206001 1.2372367432577873 
-7.82707192591297 -0.4498399808758573 0.09931371306793998 1.2372367432577873 
-7.79707192591297 -0.47983998087585733 -0.02068628693206001 1.2372367432577873 
-7.79707192591297 -0.4498399808758573 -0.02068628693206001 1.1472367432577872 
-9.295962288541135 -0.5098399808758574 0.009313713067939988 1.956923741830167 
-9.385962288541133 -0.5098399808758574 -0.02068628693206001 2.8776074685318043 
-9.325962288541135 -0.47983998087585733 0.06931371306793999 2.907607468531804 
-9.355962288541134 -0.5098399808758574 -0.02068628693206001 1.1472367432577872 
-9.325962288541135 -0.47983998087585733 -0.02068628693206001 1.926923741830167 
-9.355962288541134 -0.5698399808758574 -0.02068628693206001 1.2372367432577873 
-7.82707192591297 -0.47983998087585733 -0.05068628693206001 1.1172367432577872 
-7.79707192591297 -0.4498399808758573 -0.11068628693206001 1.986923741830167 
-7.707071925912969 -0.4498399808758573 0.06931371306793999 2.907607468531804 
-7.707071925912969 -0.47983998087585733 -0.02068628693206001 1.926923741830167 
-7.79707192591297 -0.5098399808758574 0.06931371306793999 2.8776074685318043 
-9.385962288541133 -0.47983998087585733 -0.11068628693206001 1.2372367432577873 
-9.325962288541135 -0.5698399808758574 0.03931371306793999 1.956923741830167 
-9.355962288541134 -0.47983998087585733 0.03931371306793999 1.2672367432577873 
-9.53596228854113 -0.4498399808758573 0.009313713067939988 1.2072367432577873 
-9.325962288541135 -0.4498399808758573 0.06931371306793999 1.1172367432577872 
-9.325962288541135 -0.5698399808758574 -0.02068628693206001 2.907607468531804 
-9.325962288541135 -0.5098399808758574 -0.02068628693206001 1.2372367432577873 
-7.82707192591297 -0.5098399808758574 0.009313713067939988 1.2372367432577873 
-9.50596228854113 -0.5098399808758574 -0.05068628693206001 1.2372367432577873 
-7.857071925912971 -0.5398399808758574 0.12931371306793998 2.8776074685318043 
-9.385962288541133 -0.47983998087585733 0.06931371306793999 2.8476074685318045 
-9.385962288541133 -0.47983998087585733 -0.02068628693206001 1.0872367432577872 
-9.385962288541133 -0.47983998087585733 0.009313713067939988 2.8776074685318043 
-9.385962288541133 -0.5098399808758574 0.06931371306793999 1.1172367432577872 
-9.385962288541133 -0.47983998087585733 0.09931371306793998 2.907607468531804 
-9.53596228854113 -0.47983998087585733 0.009313713067939988 1.1472367432577872 
-9.385962288541133 -0.47983998087585733 -0.08068628693206001 2.937607468531804 
-9.325962288541135 -0.5098399808758574 0.03931371306793999 1.1472367432577872 
-7.82707192591297 -0.4498399808758573 0.009313713067939988 2.907607468531804 
-9.355962288541134 -0.5698399808758574 0.03931371306793999 1.1472367432577872 
-9.385962288541133 -0.4498399808758573 -0.02068628693206001 1.896923741830167 
-9.415962288541133 -0.47983998087585733 0.06931371306793999 2.937607468531804 
-9.445962288541132 -0.5098399808758574 0.009313713067939988 1.956923741830167 
-9.50596228854113 -0.4498399808758573 0.03931371306793999 2.8176074685318047 
-9.475962288541131 -0.47983998087585733 0.06931371306793999 1.1472367432577872 
-9.355962288541134 -0.5698399808758574 0.03931371306793999 2.907607468531804 
-9.325962288541135 -0.5398399808758574 0.03931371306793999 1.956923741830167 
-9.415962288541133 -0.47983998087585733 0.06931371306793999 2.787607468531805 
-7.73707192591297 -0.47983998087585733 0.06931371306793999 2.8476074685318045 
-9.355962288541134 -0.4198399808758573 0.03931371306793999 2.8776074685318043 
-7.82707192591297 -0.47983998087585733 0.06931371306793999 1.1772367432577873 
-9.475962288541131 -0.47983998087585733 0.06931371306793999 2.907607468531804 
-7.82707192591297 -0.4498399808758573 0.06931371306793999 1.1172367432577872 
-9.475962288541131 -0.47983998087585733 0.03931371306793999 2.8176074685318047 
-9.385962288541133 -0.4498399808758573 0.06931371306793999 1.1172367432577872 
-9.355962288541134 -0.4498399808758573 -0.02068628693206001 1.866923741830167 
-9.385962288541133 -0.47983998087585733 -0.02068628693206001 2.8776074685318043 
-7.73707192591297 -0.4498399808758573 0.12931371306793998 2.937607468531804 
-9.475962288541131 -0.4498399808758573 0.009313713067939988 1.896923741830167 
-9.50596228854113 -0.47983998087585733 0.06931371306793999 1.896923741830167 
-9.355962288541134 -0.5398399808758574 -0.02068628693206001 1.2372367432577873 
-7.82707192591297 -0.47983998087585733 -0.05068628693206001 2.8476074685318045 
-9.385962288541133 -0.4498399808758573 0.06931371306793999 1.896923741830167 
-9.415962288541133 -0.47983998087585733 0.09931371306793998 2.9676074685318037 
-7.857071925912971 -0.4498399808758573 0.06931371306793999 1.926923741830167 
-7.82707192591297 -0.4198399808758573 -0.02068628693206001 2.907607468531804 
-7.82707192591297 -0.4498399808758573 0.03931371306793999 2.8476074685318045 
-7.857071925912971 -0.5098399808758574 0.06931371306793999 1.2372367432577873 
-7.857071925912971 -0.5098399808758574 -0.11068628693206001 1.2372367432577873 
-9.355962288541134 -0.5098399808758574 0.03931371306793999 1.1472367432577872 
-7.82707192591297 -0.4498399808758573 0.06931371306793999 2.907607468531804 
-9.415962288541133 -0.4498399808758573 0.09931371306793998 1.1772367432577873 
-7.82707192591297 -0.5098399808758574 0.03931371306793999 1.2372367432577873 
-9.325962288541135 -0.5098399808758574 0.009313713067939988 2.907607468531804 
-7.82707192591297 -0.5398399808758574 0.03931371306793999 1.926923741830167 
-7.79707192591297 -0.4198399808758573 0.03931371306793999 2.907607468531804 
-9.355962288541134 -0.4498399808758573 0.009313713067939988 2.787607468531805 
-9.355962288541134 -0.47983998087585733 0.06931371306793999 2.8176074685318047 
-7.82707192591297 -0.5098399808758574 -0.02068628693206001 2.937607468531804 
-7.82707192591297 -0.47983998087585733 0.09931371306793998 2.907607468531804 
-9.415962288541133 -0.47983998087585733 0.06931371306793999 1.896923741830167 
-9.325962288541135 -0.4498399808758573 0.03931371306793999 1.2372367432577873 
-9.295962288541135 -0.5698399808758574 0.06931371306793999 2.907607468531804 
-9.475962288541131 -0.47983998087585733 0.009313713067939988 1.0572367432577872 
-7.82707192591297 -0.5098399808758574 -0.17068628693206 1.1172367432577872 
-9.355962288541134 -0.47983998087585733 0.03931371306793999 1.1172367432577872 
-7.82707192591297 -0.4498399808758573 -0.02068628693206001 2.907607468531804 
-9.415962288541133 -0.47983998087585733 0.03931371306793999 1.896923741830167 
-9.475962288541131 -0.47983998087585733 0.06931371306793999 2.8476074685318045 
-9.385962288541133 -0.4198399808758573 0.03931371306793999 1.926923741830167 
-9.325962288541135 -0.4498399808758573 -0.02068628693206001 2.8776074685318043 
-7.82707192591297 -0.47983998087585733 0.03931371306793999 1.896923741830167 
-9.325962288541135 -0.5398399808758574 -0.05068628693206001 1.866923741830167 
-7.857071925912971 -0.47983998087585733 0.06931371306793999 2.8176074685318047 
-9.385962288541133 -0.47983998087585733 0.03931371306793999 2.8776074685318043 
-7.82707192591297 -0.47983998087585733 0.06931371306793999 2.907607468531804 
-7.79707192591297 -0.47983998087585733 0.009313713067939988 2.8176074685318047 
-9.50596228854113 -0.47983998087585733 0.09931371306793998 1.1172367432577872 
-9.325962288541135 -0.47983998087585733 0.009313713067939988 2.9676074685318037 
-9.56596228854113 -0.5098399808758574 -0.02068628693206001 1.0872367432577872 
-9.50596228854113 -0.4498399808758573 -0.05068628693206001 1.926923741830167 
-7.79707192591297 -0.47983998087585733 -0.02068628693206001 1.0872367432577872 
-9.415962288541133 -0.5098399808758574 -0.02068628693206001 2.8776074685318043 
-9.50596228854113 -0.47983998087585733 0.06931371306793999 1.896923741830167 
-7.82707192591297 -0.47983998087585733 0.03931371306793999 2.907607468531804 
-9.475962288541131 -0.5398399808758574 0.06931371306793999 1.2072367432577873 
-7.857071925912971 -0.47983998087585733 0.06931371306793999 2.907607468531804 
-9.325962288541135 -0.47983998087585733 -0.02068628693206001 2.907607468531804 
-7.79707192591297 -0.47983998087585733 0.06931371306793999 1.896923741830167 
-9.355962288541134 -0.5398399808758574 0.009313713067939988 1.1472367432577872 
-7.857071925912971 -0.5398399808758574 0.009313713067939988 1.2372367432577873 
-9.385962288541133 -0.4498399808758573 0.09931371306793998 1.1172367432577872 
-9.385962288541133 -0.47983998087585733 -0.02068628693206001 2.8776074685318043 
-7.82707192591297 -0.5098399808758574 0.06931371306793999 2.8176074685318047 
-7.82707192591297 -0.5098399808758574 -0.05068628693206001 1.2372367432577873 
-9.355962288541134 -0.5098399808758574 -0.02068628693206001 1.896923741830167 
-9.385962288541133 -0.47983998087585733 0.09931371306793998 1.956923741830167 
-9.325962288541135 -0.5398399808758574 0.12931371306793998 2.907607468531804 
-7.707071925912969 -0.47983998087585733 0.03931371306793999 2.8176074685318047 
-9.355962288541134 -0.5098399808758574 0.03931371306793999 1.926923741830167 
-7.82707192591297 -0.47983998087585733 -0.05068628693206001 2.907607468531804 
-9.355962288541134 -0.47983998087585733 -0.02068628693206001 1.956923741830167 
-9.56596228854113 -0.5098399808758574 -0.02068628693206001 1.926923741830167 
-9.325962288541135 -0.5098399808758574 -0.02068628693206001 1.1472367432577872 
-9.53596228854113 -0.4198399808758573 0.06931371306793999 1.1772367432577873 
-9.445962288541132 -0.4498399808758573 -0.02068628693206001 2.907607468531804 
-9.50596228854113 -0.5098399808758574 -0.05068628693206001 2.8776074685318043 
-9.325962288541135 -0.47983998087585733 0.06931371306793999 2.8176074685318047 
-9.385962288541133 -0.5398399808758574 -0.02068628693206001 2.907607468531804 
-9.475962288541131 -0.47983998087585733 0.009313713067939988 2.8776074685318043 
-9.355962288541134 -0.4498399808758573 0.009313713067939988 2.8776074685318043 
-7.857071925912971 -0.5098399808758574 0.06931371306793999 2.8476074685318045 
-7.707071925912969 -0.4498399808758573 -0.11068628693206001 2.907607468531804 
-9.295962288541135 -0.5398399808758574 0.03931371306793999 1.896923741830167 
-9.50596228854113 -0.5098399808758574 -0.05068628693206001 2.907607468531804 
-7.857071925912971 -0.5698399808758574 -0.11068628693206001 1.1472367432577872 
-7.857071925912971 -0.47983998087585733 0.009313713067939988 1.1172367432577872 
-7.79707192591297 -0.47983998087585733 -0.11068628693206001 1.2372367432577873 
-9.385962288541133 -0.4198399808758573 0.06931371306793999 1.1472367432577872 
-7.79707192591297 -0.47983998087585733 0.03931371306793999 1.0872367432577872 
-9.50596228854113 -0.47983998087585733 -0.02068628693206001 1.896923741830167 
-9.325962288541135 -0.5398399808758574 0.03931371306793999 1.956923741830167 
-9.385962288541133 -0.4498399808758573 -0.11068628693206001 1.2072367432577873 
-9.385962288541133 -0.4498399808758573 0.009313713067939988 1.2372367432577873 
-9.355962288541134 -0.5098399808758574 0.009313713067939988 2.907607468531804 
-7.82707192591297 -0.47983998087585733 -0.02068628693206001 1.1772367432577873 
-9.475962288541131 -0.47983998087585733 0.06931371306793999 2.8476074685318045 
-7.82707192591297 -0.4498399808758573 0.03931371306793999 2.8476074685318045 
-9.385962288541133 -0.4498399808758573 -0.02068628693206001 2.907607468531804 
-9.355962288541134 -0.47983998087585733 0.03931371306793999 1.0872367432577872 
-9.50596228854113 -0.47983998087585733 0.03931371306793999 1.1472367432577872 
-9.355962288541134 -0.47983998087585733 0.03931371306793999 1.956923741830167 
-7.707071925912969 -0.47983998087585733 0.009313713067939988 2.8776074685318043 
-9.355962288541134 -0.5098399808758574 -0.11068628693206001 1.1472367432577872 
-7.82707192591297 -0.4498399808758573 -0.02068628693206001 2.8476074685318045 
-9.295962288541135 -0.47983998087585733 0.03931371306793999 2.907607468531804 
-9.385962288541133 -0.4498399808758573 -0.02068628693206001 2.8776074685318043 
-9.325962288541135 -0.47983998087585733 -0.05068628693206001 2.9676074685318037 
-7.82707192591297 -0.5398399808758574 -0.02068628693206001 2.907607468531804 
-9.355962288541134 -0.4498399808758573 0.03931371306793999 1.1472367432577872 
-7.79707192591297 -0.47983998087585733 0.06931371306793999 1.0872367432577872 
-9.355962288541134 -0.5098399808758574 0.03931371306793999 2.907607468531804 
-7.76707192591297 -0.47983998087585733 0.03931371306793999 1.0872367432577872 
-9.385962288541133 -0.5098399808758574 0.03931371306793999 2.8776074685318043 
-7.82707192591297 -0.5398399808758574 0.06931371306793999 2.8476074685318045 
-9.325962288541135 -0.47983998087585733 -0.08068628693206001 1.956923741830167 
-7.79707192591297 -0.47983998087585733 0.03931371306793999 1.2072367432577873 
-9.295962288541135 -0.47983998087585733 0.06931371306793999 1.1472367432577872 
-7.82707192591297 -0.5098399808758574 -0.02068628693206001 1.956923741830167 
-9.56596228854113 -0.5098399808758574 -0.02068628693206001 1.2372367432577873 
-9.385962288541133 -0.5698399808758574 -0.02068628693206001 1.896923741830167 
-9.325962288541135 -0.5098399808758574 0.03931371306793999 1.1472367432577872 
-9.50596228854113 -0.47983998087585733 -0.14068628693206 2.8176074685318047 
-9.415962288541133 -0.4498399808758573 -0.02068628693206001 2.8776074685318043 
-9.325962288541135 -0.4198399808758573 -0.05068628693206001 2.937607468531804 
-9.415962288541133 -0.4498399808758573 0.009313713067939988 1.2372367432577873 
-9.385962288541133 -0.47983998087585733 -0.02068628693206001 1.1172367432577872 
-9.50596228854113 -0.5098399808758574 0.15931371306793998 2.9676074685318037 
-9.415962288541133 -0.47983998087585733 -0.02068628693206001 1.2372367432577873 
-9.325962288541135 -0.47983998087585733 -0.02068628693206001 2.9676074685318037 
-9.355962288541134 -0.47983998087585733 0.03931371306793999 1.1472367432577872 
-9.53596228854113 -0.5098399808758574 0.06931371306793999 1.2372367432577873 
-9.325962288541135 -0.47983998087585733 0.009313713067939988 2.9676074685318037 
-7.82707192591297 -0.5098399808758574 -0.05068628693206001 1.986923741830167 
-7.857071925912971 -0.4498399808758573 -0.05068628693206001 2.8776074685318043 
-9.385962288541133 -0.47983998087585733 -0.02068628693206001 1.1172367432577872 
-9.355962288541134 -0.47983998087585733 0.03931371306793999 2.907607468531804 
-9.385962288541133 -0.4498399808758573 -0.02068628693206001 2.8476074685318045 
-7.857071925912971 -0.5398399808758574 0.06931371306793999 2.8476074685318045 
-9.385962288541133 -0.4198399808758573 -0.02068628693206001 1.1172367432577872 
-7.82707192591297 -0.5398399808758574 -0.05068628693206001 1.1472367432577872 
-7.73707192591297 -0.4498399808758573 0.09931371306793998 2.907607468531804 
-9.355962288541134 -0.47983998087585733 -0.02068628693206001 1.1472367432577872 
-9.355962288541134 -0.5398399808758574 0.009313713067939988 1.2072367432577873 
-9.355962288541134 -0.47983998087585733 -0.14068628693206 1.1172367432577872 
-7.79707192591297 -0.4498399808758573 0.06931371306793999 1.1172367432577872 
-9.475962288541131 -0.5098399808758574 0.03931371306793999 2.937607468531804 
-9.385962288541133 -0.4498399808758573 0.06931371306793999 1.956923741830167 
-9.415962288541133 -0.4498399808758573 0.03931371306793999 1.926923741830167 
-7.82707192591297 -0.5098399808758574 0.009313713067939988 1.0872367432577872 
-7.82707192591297 -0.47983998087585733 -0.02068628693206001 1.1472367432577872 
-9.385962288541133 -0.47983998087585733 0.06931371306793999 1.926923741830167 
-7.82707192591297 -0.47983998087585733 0.06931371306793999 2.937607468531804 
-9.475962288541131 -0.4498399808758573 0.009313713067939988 1.2372367432577873 
-9.325962288541135 -0.5098399808758574 0.009313713067939988 1.2372367432577873 
-9.265962288541136 -0.5398399808758574 -0.02068628693206001 1.956923741830167 
-9.325962288541135 -0.47983998087585733 0.03931371306793999 1.2372367432577873 
-9.355962288541134 -0.5698399808758574 -0.02068628693206001 1.896923741830167 
-9.50596228854113 -0.47983998087585733 0.06931371306793999 1.926923741830167 
-9.355962288541134 -0.47983998087585733 0.009313713067939988 1.1172367432577872 
-7.82707192591297 -0.47983998087585733 0.06931371306793999 2.8476074685318045 
-9.355962288541134 -0.5098399808758574 0.009313713067939988 2.8476074685318045 
-9.415962288541133 -0.47983998087585733 0.09931371306793998 1.2372367432577873 
-9.475962288541131 -0.47983998087585733 0.009313713067939988 1.1472367432577872 
-9.325962288541135 -0.47983998087585733 0.03931371306793999 1.956923741830167 
-7.82707192591297 -0.4498399808758573 -0.02068628693206001 2.937607468531804 
-7.82707192591297 -0.47983998087585733 0.06931371306793999 2.907607468531804 
-7.857071925912971 -0.4498399808758573 -0.14068628693206 1.956923741830167 
-9.385962288541133 -0.4198399808758573 -0.02068628693206001 2.937607468531804 
-9.355962288541134 -0.5398399808758574 0.03931371306793999 1.926923741830167 
-7.79707192591297 -0.4198399808758573 -0.02068628693206001 1.1172367432577872 
-7.82707192591297 -0.47983998087585733 -0.02068628693206001 1.926923741830167 
-9.355962288541134 -0.47983998087585733 0.009313713067939988 1.2372367432577873 
-7.76707192591297 -0.5098399808758574 0.06931371306793999 2.8476074685318045 
-7.707071925912969 -0.4498399808758573 -0.05068628693206001 2.8776074685318043 
-9.475962288541131 -0.47983998087585733 -0.14068628693206 1.1472367432577872 
-7.857071925912971 -0.5398399808758574 0.09931371306793998 2.8476074685318045 
-7.857071925912971 -0.47983998087585733 0.009313713067939988 1.2372367432577873 
-9.325962288541135 -0.47983998087585733 -0.02068628693206001 2.907607468531804 
-7.857071925912971 -0.47983998087585733 0.06931371306793999 2.8476074685318045 
-9.415962288541133 -0.4498399808758573 0.009313713067939988 1.1772367432577873 
-9.385962288541133 -0.47983998087585733 -0.02068628693206001 1.1172367432577872 
-9.475962288541131 -0.4498399808758573 0.06931371306793999 2.8476074685318045 
-9.385962288541133 -0.47983998087585733 0.009313713067939988 2.8776074685318043 
-9.475962288541131 -0.47983998087585733 -0.02068628693206001 1.1172367432577872 
-9.385962288541133 -0.5098399808758574 -0.11068628693206001 1.1472367432577872 
-7.82707192591297 -0.47983998087585733 -0.02068628693206001 1.1772367432577873 
-9.355962288541134 -0.4498399808758573 -0.14068628693206 1.896923741830167 
-9.385962288541133 -0.47983998087585733 0.06931371306793999 2.8776074685318043 
-9.475962288541131 -0.5098399808758574 0.09931371306793998 2.8776074685318043 
-7.82707192591297 -0.5398399808758574 -0.02068628693206001 2.8776074685318043 
-7.677071925912969 -0.4498399808758573 0.009313713067939988 1.926923741830167 
-7.82707192591297 -0.4498399808758573 -0.05068628693206001 1.926923741830167 
-7.82707192591297 -0.4498399808758573 -0.02068628693206001 1.0872367432577872 
-9.385962288541133 -0.47983998087585733 0.03931371306793999 1.896923741830167 
-7.82707192591297 -0.4498399808758573 0.009313713067939988 1.956923741830167 
-7.857071925912971 -0.47983998087585733 0.009313713067939988 1.2372367432577873 
-7.857071925912971 -0.5098399808758574 0.03931371306793999 1.2372367432577873 
-7.79707192591297 -0.4498399808758573 -0.02068628693206001 2.8776074685318043 
-9.355962288541134 -0.5098399808758574 0.03931371306793999 1.956923741830167 
-7.857071925912971 -0.5098399808758574 -0.11068628693206001 1.2372367432577873 
-9.385962288541133 -0.4498399808758573 0.009313713067939988 1.926923741830167 
-9.355962288541134 -0.5098399808758574 -0.02068628693206001 1.2372367432577873 
-7.82707192591297 -0.5098399808758574 -0.02068628693206001 1.2372367432577873 
-7.857071925912971 -0.47983998087585733 0.009313713067939988 1.1472367432577872 
-9.445962288541132 -0.47983998087585733 0.06931371306793999 1.956923741830167 
-9.355962288541134 -0.4498399808758573 -0.05068628693206001 2.8776074685318043 
-9.475962288541131 -0.5998399808758574 -0.02068628693206001 2.8476074685318045 
-7.707071925912969 -0.47983998087585733 0.03931371306793999 1.926923741830167 
-7.82707192591297 -0.47983998087585733 0.009313713067939988 1.1472367432577872 
-7.82707192591297 -0.5098399808758574 0.06931371306793999 2.8176074685318047 
-9.53596228854113 -0.47983998087585733 -0.02068628693206001 1.1472367432577872 
-9.385962288541133 -0.47983998087585733 -0.02068628693206001 1.1172367432577872 
-9.325962288541135 -0.47983998087585733 -0.02068628693206001 1.2372367432577873 
-7.857071925912971 -0.5398399808758574 0.09931371306793998 2.8476074685318045 
-9.385962288541133 -0.47983998087585733 -0.11068628693206001 2.8776074685318043 
-7.82707192591297 -0.5098399808758574 -0.05068628693206001 1.2372367432577873 
-7.82707192591297 -0.5098399808758574 -0.02068628693206001 1.2372367432577873 
-9.53596228854113 -0.5098399808758574 -0.05068628693206001 1.896923741830167 
-9.475962288541131 -0.5098399808758574 0.03931371306793999 1.926923741830167 
-7.82707192591297 -0.4498399808758573 0.06931371306793999 2.907607468531804 
-9.385962288541133 -0.5698399808758574 -0.02068628693206001 2.907607468531804 
-7.82707192591297 -0.4498399808758573 0.009313713067939988 2.8776074685318043 
-9.475962288541131 -0.47983998087585733 -0.02068628693206001 2.907607468531804 
-9.325962288541135 -0.5098399808758574 0.03931371306793999 2.8476074685318045 
-7.707071925912969 -0.47983998087585733 0.09931371306793998 2.8776074685318043 
-7.79707192591297 -0.5098399808758574 0.06931371306793999 1.956923741830167 
-9.355962288541134 -0.47983998087585733 0.06931371306793999 1.986923741830167 
-9.355962288541134 -0.4498399808758573 0.03931371306793999 1.926923741830167 
-7.82707192591297 -0.47983998087585733 0.06931371306793999 1.2372367432577873 
-9.50596228854113 -0.4498399808758573 0.06931371306793999 2.937607468531804 
-7.82707192591297 -0.4498399808758573 0.09931371306793998 2.8776074685318043 
-7.857071925912971 -0.47983998087585733 -0.05068628693206001 1.2372367432577873 
-9.475962288541131 -0.4498399808758573 0.06931371306793999 1.1472367432577872 
-9.475962288541131 -0.47983998087585733 0.009313713067939988 2.8776074685318043 
-9.415962288541133 -0.4498399808758573 0.009313713067939988 1.896923741830167 
-9.50596228854113 -0.47983998087585733 0.009313713067939988 1.1772367432577873 
-7.82707192591297 -0.47983998087585733 0.06931371306793999 2.8176074685318047 
-9.475962288541131 -0.5098399808758574 -0.02068628693206001 2.907607468531804 
-7.82707192591297 -0.5098399808758574 -0.02068628693206001 1.926923741830167 
-9.355962288541134 -0.47983998087585733 0.03931371306793999 1.926923741830167 
-9.385962288541133 -0.5098399808758574 0.03931371306793999 2.907607468531804 
-9.53596228854113 -0.5098399808758574 -0.02068628693206001 1.866923741830167 
